digraph Tree {
node [shape=box, style="filled, rounded", color="black", fontname=helvetica] ;
edge [fontname=helvetica] ;
0 [label="Site EUI (kBtu/ft²) <= 0.103\nfriedman_mse = 1.0\nsamples = 6622\nvalue = 0.015", fillcolor="#f2bf9a"] ;
1 [label="Weather Normalized Site Electricity Intensity (kWh/ft²) <= 0.085\nfriedman_mse = 0.903\nsamples = 270\nvalue = 0.311", fillcolor="#f0b68c"] ;
0 -> 1 [labeldistance=2.5, labelangle=45, headlabel="True"] ;
2 [label="Largest Property Use Type_Multifamily Housing <= 0.5\nfriedman_mse = 0.633\nsamples = 193\nvalue = 0.606", fillcolor="#eead7e"] ;
1 -> 2 ;
3 [label="Site EUI (kBtu/ft²) <= 0.071\nfriedman_mse = 0.988\nsamples = 63\nvalue = -0.111", fillcolor="#f2c2a0"] ;
2 -> 3 ;
4 [label="log_Water Intensity (All Water Sources) (gal/ft²) <= 0.255\nfriedman_mse = 0.93\nsamples = 49\nvalue = -0.265", fillcolor="#f3c7a7"] ;
3 -> 4 ;
5 [label="friedman_mse = 0.556\nsamples = 6\nvalue = 0.646", fillcolor="#eeac7c"] ;
4 -> 5 ;
6 [label="friedman_mse = 0.844\nsamples = 43\nvalue = -0.013", fillcolor="#f2bf9b"] ;
4 -> 6 ;
7 [label="Year Built <= 0.868\nfriedman_mse = 0.816\nsamples = 14\nvalue = 0.429", fillcolor="#efb286"] ;
3 -> 7 ;
8 [label="friedman_mse = 0.0\nsamples = 8\nvalue = 0.749", fillcolor="#eda977"] ;
7 -> 8 ;
9 [label="friedman_mse = 0.889\nsamples = 6\nvalue = -2.152", fillcolor="#ffffff"] ;
7 -> 9 ;
10 [label="Year Built <= 0.945\nfriedman_mse = 0.09\nsamples = 130\nvalue = 0.954", fillcolor="#eca36e"] ;
2 -> 10 ;
11 [label="Weather Normalized Site Electricity Intensity (kWh/ft²) <= 0.081\nfriedman_mse = 0.032\nsamples = 124\nvalue = 0.984", fillcolor="#eca26c"] ;
10 -> 11 ;
12 [label="friedman_mse = 0.0\nsamples = 117\nvalue = 0.001", fillcolor="#f2bf9a"] ;
11 -> 12 ;
13 [label="friedman_mse = 0.49\nsamples = 7\nvalue = 0.039", fillcolor="#f2be99"] ;
11 -> 13 ;
14 [label="friedman_mse = 0.889\nsamples = 6\nvalue = 0.042", fillcolor="#f2be99"] ;
10 -> 14 ;
15 [label="Year Built <= 0.853\nfriedman_mse = 0.816\nsamples = 77\nvalue = -0.429", fillcolor="#f4ccae"] ;
1 -> 15 ;
16 [label="Largest Property Use Type_Multifamily Housing <= 0.5\nfriedman_mse = 0.571\nsamples = 58\nvalue = -0.655", fillcolor="#f6d2b9"] ;
15 -> 16 ;
17 [label="Property Id <= 0.508\nfriedman_mse = 1.0\nsamples = 12\nvalue = 0.0", fillcolor="#f2bf9a"] ;
16 -> 17 ;
18 [label="friedman_mse = 0.889\nsamples = 6\nvalue = 0.007", fillcolor="#f2bf9a"] ;
17 -> 18 ;
19 [label="friedman_mse = 0.889\nsamples = 6\nvalue = -0.109", fillcolor="#f2c2a0"] ;
17 -> 19 ;
20 [label="Year Built <= 0.715\nfriedman_mse = 0.318\nsamples = 46\nvalue = -0.826", fillcolor="#f7d8c1"] ;
16 -> 20 ;
21 [label="friedman_mse = 1.0\nsamples = 6\nvalue = -0.156", fillcolor="#f3c4a2"] ;
20 -> 21 ;
22 [label="friedman_mse = 0.098\nsamples = 40\nvalue = -0.0", fillcolor="#f2bf9a"] ;
20 -> 22 ;
23 [label="Site EUI (kBtu/ft²) <= 0.082\nfriedman_mse = 0.931\nsamples = 19\nvalue = 0.263", fillcolor="#f0b78e"] ;
15 -> 23 ;
24 [label="friedman_mse = 0.98\nsamples = 7\nvalue = -0.052", fillcolor="#f2c19d"] ;
23 -> 24 ;
25 [label="Site EUI (kBtu/ft²) <= 0.095\nfriedman_mse = 0.75\nsamples = 12\nvalue = 0.5", fillcolor="#efb083"] ;
23 -> 25 ;
26 [label="friedman_mse = 0.889\nsamples = 6\nvalue = 0.015", fillcolor="#f2bf9a"] ;
25 -> 26 ;
27 [label="friedman_mse = 0.556\nsamples = 6\nvalue = 0.031", fillcolor="#f2be99"] ;
25 -> 27 ;
28 [label="Weather Normalized Site Electricity Intensity (kWh/ft²) <= 0.003\nfriedman_mse = 1.0\nsamples = 6352\nvalue = 0.003", fillcolor="#f2bf9a"] ;
0 -> 28 [labeldistance=2.5, labelangle=-45, headlabel="False"] ;
29 [label="friedman_mse = 0.691\nsamples = 9\nvalue = 0.365", fillcolor="#f0b489"] ;
28 -> 29 ;
30 [label="log_Water Intensity (All Water Sources) (gal/ft²) <= 0.139\nfriedman_mse = 1.0\nsamples = 6343\nvalue = 0.002", fillcolor="#f2bf9a"] ;
28 -> 30 ;
31 [label="friedman_mse = 0.691\nsamples = 9\nvalue = 1.662", fillcolor="#e88e4d"] ;
30 -> 31 ;
32 [label="Property Id <= 0.212\nfriedman_mse = 1.0\nsamples = 6334\nvalue = 0.001", fillcolor="#f2bf9a"] ;
30 -> 32 ;
33 [label="DOF Gross Floor Area <= 0.173\nfriedman_mse = 0.889\nsamples = 24\nvalue = 0.333", fillcolor="#f0b58b"] ;
32 -> 33 ;
34 [label="friedman_mse = 0.691\nsamples = 18\nvalue = 2.085", fillcolor="#e58139"] ;
33 -> 34 ;
35 [label="friedman_mse = 0.889\nsamples = 6\nvalue = -1.396", fillcolor="#fae9dc"] ;
33 -> 35 ;
36 [label="Property Id <= 0.405\nfriedman_mse = 1.0\nsamples = 6310\nvalue = 0.0", fillcolor="#f2bf9a"] ;
32 -> 36 ;
37 [label="friedman_mse = 0.976\nsamples = 130\nvalue = -0.306", fillcolor="#f4c8a9"] ;
36 -> 37 ;
38 [label="friedman_mse = 1.0\nsamples = 6180\nvalue = 0.007", fillcolor="#f2bf9a"] ;
36 -> 38 ;
}