digraph Tree {
node [shape=box, style="filled, rounded", color="black", fontname=helvetica] ;
edge [fontname=helvetica] ;
0 [label="Site EUI (kBtu/ft²) <= 0.103\nfriedman_mse = 1.0\nsamples = 6622\nvalue = 0.015", fillcolor="#f2bf9a"] ;
1 [label="Weather Normalized Site Electricity Intensity (kWh/ft²) <= 0.085\nfriedman_mse = 0.903\nsamples = 270\nvalue = 0.311", fillcolor="#f0b68c"] ;
0 -> 1 [labeldistance=2.5, labelangle=45, headlabel="True"] ;
2 [label="Largest Property Use Type_Multifamily Housing <= 0.5\nfriedman_mse = 0.633\nsamples = 193\nvalue = 0.606", fillcolor="#eead7e"] ;
1 -> 2 ;
3 [label="Site EUI (kBtu/ft²) <= 0.071\nfriedman_mse = 0.988\nsamples = 63\nvalue = -0.111", fillcolor="#f2c2a0"] ;
2 -> 3 ;
4 [label="(...)", fillcolor="#C0C0C0"] ;
3 -> 4 ;
7 [label="(...)", fillcolor="#C0C0C0"] ;
3 -> 7 ;
10 [label="Year Built <= 0.945\nfriedman_mse = 0.09\nsamples = 130\nvalue = 0.954", fillcolor="#eca36e"] ;
2 -> 10 ;
11 [label="(...)", fillcolor="#C0C0C0"] ;
10 -> 11 ;
14 [label="(...)", fillcolor="#C0C0C0"] ;
10 -> 14 ;
15 [label="Year Built <= 0.853\nfriedman_mse = 0.816\nsamples = 77\nvalue = -0.429", fillcolor="#f4ccae"] ;
1 -> 15 ;
16 [label="Largest Property Use Type_Multifamily Housing <= 0.5\nfriedman_mse = 0.571\nsamples = 58\nvalue = -0.655", fillcolor="#f6d2b9"] ;
15 -> 16 ;
17 [label="(...)", fillcolor="#C0C0C0"] ;
16 -> 17 ;
20 [label="(...)", fillcolor="#C0C0C0"] ;
16 -> 20 ;
23 [label="Site EUI (kBtu/ft²) <= 0.082\nfriedman_mse = 0.931\nsamples = 19\nvalue = 0.263", fillcolor="#f0b78e"] ;
15 -> 23 ;
24 [label="(...)", fillcolor="#C0C0C0"] ;
23 -> 24 ;
25 [label="(...)", fillcolor="#C0C0C0"] ;
23 -> 25 ;
28 [label="Weather Normalized Site Electricity Intensity (kWh/ft²) <= 0.003\nfriedman_mse = 1.0\nsamples = 6352\nvalue = 0.003", fillcolor="#f2bf9a"] ;
0 -> 28 [labeldistance=2.5, labelangle=-45, headlabel="False"] ;
29 [label="friedman_mse = 0.691\nsamples = 9\nvalue = 0.365", fillcolor="#f0b489"] ;
28 -> 29 ;
30 [label="log_Water Intensity (All Water Sources) (gal/ft²) <= 0.139\nfriedman_mse = 1.0\nsamples = 6343\nvalue = 0.002", fillcolor="#f2bf9a"] ;
28 -> 30 ;
31 [label="friedman_mse = 0.691\nsamples = 9\nvalue = 1.662", fillcolor="#e88e4d"] ;
30 -> 31 ;
32 [label="Property Id <= 0.212\nfriedman_mse = 1.0\nsamples = 6334\nvalue = 0.001", fillcolor="#f2bf9a"] ;
30 -> 32 ;
33 [label="(...)", fillcolor="#C0C0C0"] ;
32 -> 33 ;
36 [label="(...)", fillcolor="#C0C0C0"] ;
32 -> 36 ;
}